digraph Tree {
node [shape=box, style="filled, rounded", color="black", fontname="helvetica"] ;
edge [fontname="helvetica"] ;
0 [label="sepal length (cm) <= 5.35\ngini = 0.66\nsamples = 98\nvalue = [48, 61, 41]\nclass = versicolor", fillcolor="#e6fcef"] ;
1 [label="petal width (cm) <= 0.75\ngini = 0.31\nsamples = 31\nvalue = [44, 9, 1]\nclass = setosa", fillcolor="#eb9d65"] ;
0 -> 1 [labeldistance=2.5, labelangle=45, headlabel="True"] ;
2 [label="gini = 0.0\nsamples = 27\nvalue = [44, 0, 0]\nclass = setosa", fillcolor="#e58139"] ;
1 -> 2 ;
3 [label="sepal length (cm) <= 4.95\ngini = 0.18\nsamples = 4\nvalue = [0, 9, 1]\nclass = versicolor", fillcolor="#4fe88f"] ;
1 -> 3 ;
4 [label="gini = 0.0\nsamples = 1\nvalue = [0, 0, 1]\nclass = virginica", fillcolor="#8139e5"] ;
3 -> 4 ;
5 [label="gini = 0.0\nsamples = 3\nvalue = [0, 9, 0]\nclass = versicolor", fillcolor="#39e581"] ;
3 -> 5 ;
6 [label="petal width (cm) <= 1.75\ngini = 0.53\nsamples = 67\nvalue = [4, 52, 40]\nclass = versicolor", fillcolor="#d5f9e4"] ;
0 -> 6 [labeldistance=2.5, labelangle=-45, headlabel="False"] ;
7 [label="petal width (cm) <= 0.7\ngini = 0.2\nsamples = 40\nvalue = [4, 50, 2]\nclass = versicolor", fillcolor="#50e890"] ;
6 -> 7 ;
8 [label="gini = 0.0\nsamples = 4\nvalue = [4, 0, 0]\nclass = setosa", fillcolor="#e58139"] ;
7 -> 8 ;
9 [label="petal length (cm) <= 5.45\ngini = 0.07\nsamples = 36\nvalue = [0, 50, 2]\nclass = versicolor", fillcolor="#41e686"] ;
7 -> 9 ;
10 [label="petal length (cm) <= 5.05\ngini = 0.04\nsamples = 35\nvalue = [0, 50, 1]\nclass = versicolor", fillcolor="#3de684"] ;
9 -> 10 ;
11 [label="gini = 0.0\nsamples = 33\nvalue = [0, 48, 0]\nclass = versicolor", fillcolor="#39e581"] ;
10 -> 11 ;
12 [label="petal width (cm) <= 1.55\ngini = 0.44\nsamples = 2\nvalue = [0, 2, 1]\nclass = versicolor", fillcolor="#9cf2c0"] ;
10 -> 12 ;
13 [label="gini = 0.0\nsamples = 1\nvalue = [0, 0, 1]\nclass = virginica", fillcolor="#8139e5"] ;
12 -> 13 ;
14 [label="gini = 0.0\nsamples = 1\nvalue = [0, 2, 0]\nclass = versicolor", fillcolor="#39e581"] ;
12 -> 14 ;
15 [label="gini = 0.0\nsamples = 1\nvalue = [0, 0, 1]\nclass = virginica", fillcolor="#8139e5"] ;
9 -> 15 ;
16 [label="petal length (cm) <= 4.85\ngini = 0.09\nsamples = 27\nvalue = [0, 2, 38]\nclass = virginica", fillcolor="#8843e6"] ;
6 -> 16 ;
17 [label="sepal length (cm) <= 5.95\ngini = 0.44\nsamples = 2\nvalue = [0, 2, 1]\nclass = versicolor", fillcolor="#9cf2c0"] ;
16 -> 17 ;
18 [label="gini = 0.0\nsamples = 1\nvalue = [0, 2, 0]\nclass = versicolor", fillcolor="#39e581"] ;
17 -> 18 ;
19 [label="gini = 0.0\nsamples = 1\nvalue = [0, 0, 1]\nclass = virginica", fillcolor="#8139e5"] ;
17 -> 19 ;
20 [label="gini = 0.0\nsamples = 25\nvalue = [0, 0, 37]\nclass = virginica", fillcolor="#8139e5"] ;
16 -> 20 ;
}